<?xml version="1.0"?>
<opencv_storage>
<cascade>
  <stageType>BOOST</stageType>
  <featureType>HAAR</featureType>
  <height>20</height>
  <width>20</width>
  <stageParams>
    <boostType>GAB</boostType>
    <minHitRate>9.9500000476837158e-001</minHitRate>
    <maxFalseAlarm>5.0000000000000000e-001</maxFalseAlarm>
    <weightTrimRate>9.4999999999999996e-001</weightTrimRate>
    <maxDepth>3</maxDepth>
    <maxWeakCount>100</maxWeakCount></stageParams>
  <featureParams>
    <maxCatCount>0</maxCatCount>
    <featSize>1</featSize>
    <mode>ALL</mode></featureParams>
  <stageNum>12</stageNum>
  <stages>
    <!-- stage 0 -->
    <_>
      <maxWeakCount>2</maxWeakCount>
      <stageThreshold>-5.8159653097391129e-002</stageThreshold>
      <weakClassifiers>
        <_>
          <internalNodes>
            1 2 126 -7.8584186732769012e-002 3 4 118
            2.2872188128530979e-003 5 0 23 1.0430607944726944e-001 -1 -2
            116 -1.1068221181631088e-002 -3 -4 4
            -1.6865994781255722e-002 -5 -6 101 -7.2939254343509674e-002</internalNodes>
          <leafValues>
            7.7777779102325439e-001 7.5000000000000000e-001
            -9.2592591047286987e-001 -1. 1. 1. -9.4252872467041016e-001</leafValues></_>
        <_>
          <internalNodes>
            1 2 29 -1.5371086075901985e-002 3 4 140
            6.0044922865927219e-003 0 -1 14 3.6483790725469589e-002 -2
            -3 66 2.4279826320707798e-003 -4 -5 143
            2.9147505760192871e-001</internalNodes>
          <leafValues>
            -1. 6.2119120359420776e-001 -7.9671579599380493e-001 1.
            8.8436907529830933e-001 -1.</leafValues></_></weakClassifiers></_>
    <!-- stage 1 -->
    <_>
      <maxWeakCount>2</maxWeakCount>
      <stageThreshold>-1.5947607159614563e-001</stageThreshold>
      <weakClassifiers>
        <_>
          <internalNodes>
            1 2 62 -1.1534532532095909e-002 3 4 147
            8.3087701350450516e-003 5 6 107 -2.4872539564967155e-002 0
            -1 9 4.2472593486309052e-003 -2 -3 102
            -1.5761689282953739e-003 -4 -5 0 -5.0700590945780277e-003 -6
            -7 124 -5.7123205624520779e-003</internalNodes>
          <leafValues>
            -1. 1. -6.0000002384185791e-001 1. -1. 1.
            7.7777779102325439e-001 -9.4565218687057495e-001</leafValues></_>
        <_>
          <internalNodes>
            1 2 46 -9.7572542726993561e-003 3 4 80
            -2.8754170052707195e-003 5 6 135 -1.1738832108676434e-002 0
            -1 122 -2.3060578852891922e-002 -2 -3 6
            -5.0886385142803192e-003 -4 -5 79 3.4502125345170498e-003 -6
            -7 123 -2.0535873249173164e-002</internalNodes>
          <leafValues>
            -7.9413771629333496e-001 9.2870676517486572e-001 1. -1.
            7.8617608547210693e-001 -1. 1. -9.7695142030715942e-001</leafValues></_></weakClassifiers></_>
    <!-- stage 2 -->
    <_>
      <maxWeakCount>2</maxWeakCount>
      <stageThreshold>9.6841929480433464e-003</stageThreshold>
      <weakClassifiers>
        <_>
          <internalNodes>
            1 2 60 -2.6924405246973038e-002 3 4 65
            -2.0679363515228033e-003 5 6 55 3.1521812081336975e-002 0 -1
            11 4.4098816812038422e-002 -2 -3 17 1.2411092221736908e-001
            -4 -5 75 -1.9759196788072586e-002 -6 -7 31
            -2.1297487616539001e-001</internalNodes>
          <leafValues>
            1. -1. -1. 1. 7.7777779102325439e-001
            -9.0163934230804443e-001 1. -8.1818181276321411e-001</leafValues></_>
        <_>
          <internalNodes>
            1 2 43 7.0354025810956955e-003 3 4 69
            -7.8778509050607681e-003 5 6 15 -2.2800747305154800e-002 0
            -1 1 1.2215553782880306e-002 -2 -3 97
            -4.3418146669864655e-003 -4 -5 18 -7.3492247611284256e-003
            -6 -7 96 4.0819076821208000e-003</internalNodes>
          <leafValues>
            1. -1. 7.7031069993972778e-001 -9.0760540962219238e-001 1.
            -1. 9.1132354736328125e-001 -6.5555363893508911e-001</leafValues></_></weakClassifiers></_>
    <!-- stage 3 -->
    <_>
      <maxWeakCount>2</maxWeakCount>
      <stageThreshold>-2.3264238238334656e-001</stageThreshold>
      <weakClassifiers>
        <_>
          <internalNodes>
            1 2 71 2.1973531693220139e-003 3 4 41
            -3.2820245251059532e-003 5 6 113 2.4420801550149918e-002 0
            -1 53 -2.6894472539424896e-002 -2 -3 21
            -1.7250401899218559e-002 -4 -5 24 3.0178800225257874e-001 -6
            -7 49 -2.2992748767137527e-002</internalNodes>
          <leafValues>
            8.4615385532379150e-001 -8.4615385532379150e-001
            6.0000002384185791e-001 -8.4357541799545288e-001 -1. 1.
            -6.0000002384185791e-001 1.</leafValues></_>
        <_>
          <internalNodes>
            1 2 152 3.1444188207387924e-003 3 4 37
            -2.1281084045767784e-003 5 6 72 -3.7214200943708420e-002 0
            -1 120 2.4269384448416531e-004 -2 -3 67
            3.7737868260592222e-003 -4 -5 68 -3.4133866429328918e-003 -6
            -7 12 -4.1172925382852554e-002</internalNodes>
          <leafValues>
            1. -8.1370157003402710e-001 -8.0304121971130371e-001
            3.6735761165618896e-001 -1. 1. 1. -1.</leafValues></_></weakClassifiers></_>
    <!-- stage 4 -->
    <_>
      <maxWeakCount>2</maxWeakCount>
      <stageThreshold>-1.9652095437049866e-001</stageThreshold>
      <weakClassifiers>
        <_>
          <internalNodes>
            1 2 106 1.2905731797218323e-001 0 3 93
            -2.0910471677780151e-001 4 5 125 1.0047031566500664e-002 -1
            -2 73 -6.6842898726463318e-002 -3 -4 64
            5.2250279113650322e-003 -5 -6 63 -1.3706423342227936e-003</internalNodes>
          <leafValues>
            7.7777779102325439e-001 -3.3708830880120006e-017
            -8.7730062007904053e-001 -7.4193549156188965e-001 1. 1.
            -4.5454546809196472e-001</leafValues></_>
        <_>
          <internalNodes>
            1 2 130 -3.8046788424253464e-002 3 4 35
            -9.3963816761970520e-003 5 0 36 1.2658774852752686e-001 -1
            -2 34 -6.2562653329223394e-004 -3 -4 151
            1.0921827517449856e-002 -5 -6 47 -1.5686497092247009e-001</internalNodes>
          <leafValues>
            1. -7.7836751937866211e-001 6.8077963590621948e-001
            -9.6967613697052002e-001 7.2122603654861450e-001
            4.5266458392143250e-001 -9.6849036216735840e-001</leafValues></_></weakClassifiers></_>
    <!-- stage 5 -->
    <_>
      <maxWeakCount>2</maxWeakCount>
      <stageThreshold>-8.4180480241775513e-001</stageThreshold>
      <weakClassifiers>
        <_>
          <internalNodes>
            1 2 40 -4.4011957943439484e-003 3 0 91
            -9.7188539803028107e-003 4 5 42 -1.5775373205542564e-002 -1
            -2 16 -8.8902942836284637e-002 -3 -4 7
            3.5449437797069550e-002 -5 -6 28 -7.4684112332761288e-003</internalNodes>
          <leafValues>
            -1. -1. 1. 1. -1. -1.6121614481038051e-017
            -8.5227274894714355e-001</leafValues></_>
        <_>
          <internalNodes>
            1 2 103 -1.4814533293247223e-002 3 0 48
            1.6546996776014566e-003 4 5 128 2.9963848646730185e-004 -1
            -2 2 -6.4546447247266769e-003 -3 -4 61
            -1.0272476356476545e-003 -5 -6 33 3.2538061495870352e-003</internalNodes>
          <leafValues>
            5.5062901973724365e-001 1. -1. 6.5119719505310059e-001
            -8.4180480241775513e-001 6.1930096149444580e-001
            -9.1344326734542847e-001</leafValues></_></weakClassifiers></_>
    <!-- stage 6 -->
    <_>
      <maxWeakCount>3</maxWeakCount>
      <stageThreshold>-9.5103228092193604e-001</stageThreshold>
      <weakClassifiers>
        <_>
          <internalNodes>
            1 2 136 -2.3943642154335976e-003 0 -1 27
            -5.2822425961494446e-002 3 4 67 3.6048083566129208e-003 -2
            -3 45 -2.7214836329221725e-002 -4 -5 99
            -2.6849759742617607e-003</internalNodes>
          <leafValues>
            -1. 1. 6.6666668653488159e-001 -7.1844661235809326e-001 -1.
            6.5714287757873535e-001</leafValues></_>
        <_>
          <internalNodes>
            1 2 86 3.3669355325400829e-003 3 4 138
            1.0217718081548810e-003 0 -1 76 3.2556166406720877e-003 -2
            -3 137 -7.9998504370450974e-003 -4 -5 70
            -1.8100489396601915e-003</internalNodes>
          <leafValues>
            -1. 6.1638402938842773e-001 3.9310401678085327e-001
            -7.4997031688690186e-001 -1. 9.0715640783309937e-001</leafValues></_>
        <_>
          <internalNodes>
            1 2 51 9.4429068267345428e-003 3 4 26
            4.8018461093306541e-003 0 5 59 1.3311735820025206e-003 -1 -2
            39 -8.9710881002247334e-004 -3 -4 52
            -2.0427137613296509e-001 -5 -6 100 1.7650246620178223e-002</internalNodes>
          <leafValues>
            -1. 9.1564595699310303e-002 -8.5820484161376953e-001 1. -1.
            9.7400093078613281e-001 -6.5128970146179199e-001</leafValues></_></weakClassifiers></_>
    <!-- stage 7 -->
    <_>
      <maxWeakCount>3</maxWeakCount>
      <stageThreshold>-8.0156898498535156e-001</stageThreshold>
      <weakClassifiers>
        <_>
          <internalNodes>
            1 2 78 2.1882484853267670e-001 3 4 25
            -7.0557678118348122e-003 0 -1 87 -7.4283452704548836e-004 -2
            -3 58 -2.5901518762111664e-002 -4 -5 20
            1.8112432211637497e-002</internalNodes>
          <leafValues>
            1. -7.1428573131561279e-001 8.3999997377395630e-001 -1.
            -7.4757283926010132e-001 7.5000000000000000e-001</leafValues></_>
        <_>
          <internalNodes>
            1 2 105 3.7749628536403179e-003 3 4 148
            -1.9349043723195791e-003 0 -1 69 -1.2881727889180183e-002 -2
            -3 153 -7.7315052039921284e-003 -4 -5 44
            1.2923454865813255e-002</internalNodes>
          <leafValues>
            1. -1. -8.7352037429809570e-001 7.2134178876876831e-001
            -5.7255113124847412e-001 7.4034035205841064e-001</leafValues></_>
        <_>
          <internalNodes>
            1 2 150 -3.6743576638400555e-003 3 4 134
            5.1749348640441895e-003 5 6 111 -6.3638100400567055e-003 0
            -1 84 -3.6094352253712714e-004 -2 -3 10
            -1.2813555076718330e-002 -4 -5 92 2.5756009854376316e-003 -6
            -7 121 4.7658933326601982e-003</internalNodes>
          <leafValues>
            -1. 9.4674712419509888e-001 1. -1. 8.9602255821228027e-001
            -8.8375264406204224e-001 -7.7533799409866333e-001
            3.3124440908432007e-001</leafValues></_></weakClassifiers></_>
    <!-- stage 8 -->
    <_>
      <maxWeakCount>2</maxWeakCount>
      <stageThreshold>-8.1067764759063721e-001</stageThreshold>
      <weakClassifiers>
        <_>
          <internalNodes>
            1 2 117 -2.7005782350897789e-002 0 3 109
            -2.0980935078114271e-003 4 5 144 9.6948914229869843e-002 -1
            -2 3 1.1679765768349171e-002 -3 -4 56
            -3.1891681253910065e-002 -5 -6 13 1.9367929548025131e-002</internalNodes>
          <leafValues>
            -1. 1. -1. 2.3255813866853714e-002 -7.4736839532852173e-001
            1. -1.</leafValues></_>
        <_>
          <internalNodes>
            1 2 50 6.2062419019639492e-003 3 4 149
            6.7595448344945908e-003 5 6 90 -9.3845315277576447e-003 0 -1
            142 3.9067082107067108e-003 -2 -3 54
            -4.5871667563915253e-002 -4 -5 22 -1.8214412033557892e-001
            -6 -7 139 1.5823684632778168e-002</internalNodes>
          <leafValues>
            -8.3393347263336182e-001 2.3425312340259552e-001 1.
            -8.1837767362594604e-001 1. -1. 7.8232061862945557e-001
            -8.9711177349090576e-001</leafValues></_></weakClassifiers></_>
    <!-- stage 9 -->
    <_>
      <maxWeakCount>2</maxWeakCount>
      <stageThreshold>-1.4160705804824829e+000</stageThreshold>
      <weakClassifiers>
        <_>
          <internalNodes>
            1 2 129 -3.8369493559002876e-003 0 -1 5
            -3.5282630473375320e-002 3 -2 141 1.5174880623817444e-002 -3
            -4 133 1.4289094135165215e-002</internalNodes>
          <leafValues>
            -1. 1. 1. -6.4462810754776001e-001 1.</leafValues></_>
        <_>
          <internalNodes>
            1 2 110 -3.1612131278961897e-003 0 -1 115
            5.5677343159914017e-002 3 4 82 5.9855831786990166e-003 -2 -3
            112 7.4153831228613853e-003 -4 -5 131
            -2.3930754512548447e-002</internalNodes>
          <leafValues>
            -1. 3.5540807247161865e-001 5.3123778104782104e-001
            -7.7144253253936768e-001 1. -8.9712232351303101e-001</leafValues></_></weakClassifiers></_>
    <!-- stage 10 -->
    <_>
      <maxWeakCount>2</maxWeakCount>
      <stageThreshold>-7.3964238166809082e-001</stageThreshold>
      <weakClassifiers>
        <_>
          <internalNodes>
            1 2 83 4.0232646279036999e-003 0 3 114
            -9.5229977741837502e-003 -1 -2 32 3.5914264619350433e-002 -3
            -4 89 -1.3262106105685234e-002</internalNodes>
          <leafValues>
            1. 1. -1. 1.7647059261798859e-001 -6.8663597106933594e-001</leafValues></_>
        <_>
          <internalNodes>
            1 2 88 -1.9656484073493630e-004 3 4 38
            -2.1243863739073277e-003 0 5 74 -2.4756649136543274e-001 -1
            -2 108 2.8146032243967056e-002 -3 -4 145
            -4.3286066502332687e-003 -5 -6 77 9.3134731054306030e-002</internalNodes>
          <leafValues>
            8.8587063550949097e-001 7.8284621238708496e-001
            -7.2914743423461914e-001 5.6446653604507446e-001
            -9.1611295938491821e-001 -8.5188043117523193e-001
            8.3942663669586182e-001</leafValues></_></weakClassifiers></_>
    <!-- stage 11 -->
    <_>
      <maxWeakCount>2</maxWeakCount>
      <stageThreshold>-2.0153301954269409e-001</stageThreshold>
      <weakClassifiers>
        <_>
          <internalNodes>
            1 2 81 -3.2807274692459032e-005 3 4 119
            1.2954052072018385e-003 5 6 127 1.8606545403599739e-002 0 -1
            19 8.4739029407501221e-003 -2 -3 94 2.0217701792716980e-002
            -4 -5 30 6.6471681930124760e-003 -6 -7 8
            -1.8605057150125504e-002</internalNodes>
          <leafValues>
            -7.1428573131561279e-001 4.5454546809196472e-001
            8.4615385532379150e-001 -1. -8.7234044075012207e-001
            5.5555558204650879e-001 -1. 1.</leafValues></_>
        <_>
          <internalNodes>
            1 2 95 -7.3179847095161676e-004 3 4 98
            1.0016073472797871e-002 5 6 146 1.1957876849919558e-003 0 -1
            104 2.1714819595217705e-002 -2 -3 57
            -2.0679844601545483e-004 -4 -5 132 -1.3895018026232719e-002
            -6 -7 85 -7.7288411557674408e-004</internalNodes>
          <leafValues>
            -9.2390900850296021e-001 7.6441550254821777e-001
            9.4415837526321411e-001 -1. -6.5607845783233643e-001
            8.0301070213317871e-001 1. -1.</leafValues></_></weakClassifiers></_></stages>
  <features>
    <_>
      <rects>
        <_>
          0 0 1 4 -1.</_>
        <_>
          0 1 1 2 2.</_></rects>
      <tilted>0</tilted></_>
    <_>
      <rects>
        <_>
          0 0 3 3 -1.</_>
        <_>
          1 1 1 1 9.</_></rects>
      <tilted>0</tilted></_>
    <_>
      <rects>
        <_>
          0 0 2 2 -1.</_>
        <_>
          1 0 1 2 2.</_></rects>
      <tilted>0</tilted></_>
    <_>
      <rects>
        <_>
          0 0 1 4 -1.</_>
        <_>
          0 2 1 2 2.</_></rects>
      <tilted>0</tilted></_>
    <_>
      <rects>
        <_>
          0 0 1 12 -1.</_>
        <_>
          0 3 1 6 2.</_></rects>
      <tilted>0</tilted></_>
    <_>
      <rects>
        <_>
          0 0 1 16 -1.</_>
        <_>
          0 4 1 8 2.</_></rects>
      <tilted>0</tilted></_>
    <_>
      <rects>
        <_>
          0 0 2 10 -1.</_>
        <_>
          0 0 1 5 2.</_>
        <_>
          1 5 1 5 2.</_></rects>
      <tilted>0</tilted></_>
    <_>
      <rects>
        <_>
          0 0 3 15 -1.</_>
        <_>
          1 5 1 5 9.</_></rects>
      <tilted>0</tilted></_>
    <_>
      <rects>
        <_>
          0 0 1 12 -1.</_>
        <_>
          0 6 1 6 2.</_></rects>
      <tilted>0</tilted></_>
    <_>
      <rects>
        <_>
          0 0 2 7 -1.</_>
        <_>
          1 0 1 7 2.</_></rects>
      <tilted>0</tilted></_>
    <_>
      <rects>
        <_>
          0 0 3 8 -1.</_>
        <_>
          1 0 1 8 3.</_></rects>
      <tilted>0</tilted></_>
    <_>
      <rects>
        <_>
          0 0 1 18 -1.</_>
        <_>
          0 9 1 9 2.</_></rects>
      <tilted>0</tilted></_>
    <_>
      <rects>
        <_>
          0 0 6 3 -1.</_>
        <_>
          2 1 2 1 9.</_></rects>
      <tilted>0</tilted></_>
    <_>
      <rects>
        <_>
          0 0 4 10 -1.</_>
        <_>
          0 0 2 5 2.</_>
        <_>
          2 5 2 5 2.</_></rects>
      <tilted>0</tilted></_>
    <_>
      <rects>
        <_>
          0 0 5 6 -1.</_>
        <_>
          0 2 5 2 3.</_></rects>
      <tilted>0</tilted></_>
    <_>
      <rects>
        <_>
          0 0 12 7 -1.</_>
        <_>
          6 0 6 7 2.</_></rects>
      <tilted>0</tilted></_>
    <_>
      <rects>
        <_>
          0 0 12 18 -1.</_>
        <_>
          6 0 6 18 2.</_></rects>
      <tilted>0</tilted></_>
    <_>
      <rects>
        <_>
          0 0 15 12 -1.</_>
        <_>
          0 4 15 4 3.</_></rects>
      <tilted>0</tilted></_>
    <_>
      <rects>
        <_>
          0 0 18 8 -1.</_>
        <_>
          0 2 18 4 2.</_></rects>
      <tilted>0</tilted></_>
    <_>
      <rects>
        <_>
          0 1 3 6 -1.</_>
        <_>
          1 3 1 2 9.</_></rects>
      <tilted>0</tilted></_>
    <_>
      <rects>
        <_>
          0 1 3 11 -1.</_>
        <_>
          1 1 1 11 3.</_></rects>
      <tilted>0</tilted></_>
    <_>
      <rects>
        <_>
          0 1 4 4 -1.</_>
        <_>
          0 2 4 2 2.</_></rects>
      <tilted>0</tilted></_>
    <_>
      <rects>
        <_>
          0 1 7 14 -1.</_>
        <_>
          0 8 7 7 2.</_></rects>
      <tilted>0</tilted></_>
    <_>
      <rects>
        <_>
          0 1 16 6 -1.</_>
        <_>
          0 1 8 3 2.</_>
        <_>
          8 4 8 3 2.</_></rects>
      <tilted>0</tilted></_>
    <_>
      <rects>
        <_>
          0 1 20 18 -1.</_>
        <_>
          0 7 20 6 3.</_></rects>
      <tilted>0</tilted></_>
    <_>
      <rects>
        <_>
          0 2 3 5 -1.</_>
        <_>
          1 2 1 5 3.</_></rects>
      <tilted>0</tilted></_>
    <_>
      <rects>
        <_>
          0 3 3 6 -1.</_>
        <_>
          1 3 1 6 3.</_></rects>
      <tilted>0</tilted></_>
    <_>
      <rects>
        <_>
          0 3 12 5 -1.</_>
        <_>
          3 3 6 5 2.</_></rects>
      <tilted>0</tilted></_>
    <_>
      <rects>
        <_>
          0 4 2 9 -1.</_>
        <_>
          1 4 1 9 2.</_></rects>
      <tilted>0</tilted></_>
    <_>
      <rects>
        <_>
          0 4 11 16 -1.</_>
        <_>
          0 8 11 8 2.</_></rects>
      <tilted>0</tilted></_>
    <_>
      <rects>
        <_>
          0 5 1 8 -1.</_>
        <_>
          0 7 1 4 2.</_></rects>
      <tilted>0</tilted></_>
    <_>
      <rects>
        <_>
          0 5 14 12 -1.</_>
        <_>
          0 11 14 6 2.</_></rects>
      <tilted>0</tilted></_>
    <_>
      <rects>
        <_>
          0 7 9 3 -1.</_>
        <_>
          3 8 3 1 9.</_></rects>
      <tilted>0</tilted></_>
    <_>
      <rects>
        <_>
          0 10 8 3 -1.</_>
        <_>
          2 10 4 3 2.</_></rects>
      <tilted>0</tilted></_>
    <_>
      <rects>
        <_>
          0 10 4 10 -1.</_>
        <_>
          0 15 4 5 2.</_></rects>
      <tilted>0</tilted></_>
    <_>
      <rects>
        <_>
          0 11 16 8 -1.</_>
        <_>
          4 11 8 8 2.</_></rects>
      <tilted>0</tilted></_>
    <_>
      <rects>
        <_>
          0 11 12 7 -1.</_>
        <_>
          6 11 6 7 2.</_></rects>
      <tilted>0</tilted></_>
    <_>
      <rects>
        <_>
          0 13 3 1 -1.</_>
        <_>
          1 13 1 1 3.</_></rects>
      <tilted>0</tilted></_>
    <_>
      <rects>
        <_>
          0 14 6 3 -1.</_>
        <_>
          3 14 3 3 2.</_></rects>
      <tilted>0</tilted></_>
    <_>
      <rects>
        <_>
          0 16 3 1 -1.</_>
        <_>
          1 16 1 1 3.</_></rects>
      <tilted>0</tilted></_>
    <_>
      <rects>
        <_>
          1 0 2 1 -1.</_>
        <_>
          1 0 1 1 2.</_></rects>
      <tilted>1</tilted></_>
    <_>
      <rects>
        <_>
          1 0 2 3 -1.</_>
        <_>
          1 1 2 1 3.</_></rects>
      <tilted>0</tilted></_>
    <_>
      <rects>
        <_>
          1 1 2 14 -1.</_>
        <_>
          1 1 1 7 2.</_>
        <_>
          2 8 1 7 2.</_></rects>
      <tilted>0</tilted></_>
    <_>
      <rects>
        <_>
          1 2 14 2 -1.</_>
        <_>
          1 2 7 1 2.</_>
        <_>
          8 3 7 1 2.</_></rects>
      <tilted>0</tilted></_>
    <_>
      <rects>
        <_>
          1 3 3 16 -1.</_>
        <_>
          2 3 1 16 3.</_></rects>
      <tilted>0</tilted></_>
    <_>
      <rects>
        <_>
          1 4 16 1 -1.</_>
        <_>
          9 4 8 1 2.</_></rects>
      <tilted>0</tilted></_>
    <_>
      <rects>
        <_>
          1 8 6 6 -1.</_>
        <_>
          1 8 3 3 2.</_>
        <_>
          4 11 3 3 2.</_></rects>
      <tilted>0</tilted></_>
    <_>
      <rects>
        <_>
          1 10 16 8 -1.</_>
        <_>
          5 10 8 8 2.</_></rects>
      <tilted>0</tilted></_>
    <_>
      <rects>
        <_>
          2 0 1 2 -1.</_>
        <_>
          2 1 1 1 2.</_></rects>
      <tilted>0</tilted></_>
    <_>
      <rects>
        <_>
          2 0 6 9 -1.</_>
        <_>
          4 0 2 9 3.</_></rects>
      <tilted>0</tilted></_>
    <_>
      <rects>
        <_>
          2 0 7 2 -1.</_>
        <_>
          2 1 7 1 2.</_></rects>
      <tilted>0</tilted></_>
    <_>
      <rects>
        <_>
          2 0 15 3 -1.</_>
        <_>
          2 1 15 1 3.</_></rects>
      <tilted>0</tilted></_>
    <_>
      <rects>
        <_>
          2 2 10 14 -1.</_>
        <_>
          2 9 10 7 2.</_></rects>
      <tilted>0</tilted></_>
    <_>
      <rects>
        <_>
          2 4 8 14 -1.</_>
        <_>
          2 4 4 7 2.</_>
        <_>
          6 11 4 7 2.</_></rects>
      <tilted>0</tilted></_>
    <_>
      <rects>
        <_>
          2 4 7 8 -1.</_>
        <_>
          2 8 7 4 2.</_></rects>
      <tilted>0</tilted></_>
    <_>
      <rects>
        <_>
          2 5 7 2 -1.</_>
        <_>
          2 5 7 1 2.</_></rects>
      <tilted>1</tilted></_>
    <_>
      <rects>
        <_>
          2 6 6 8 -1.</_>
        <_>
          2 8 6 4 2.</_></rects>
      <tilted>0</tilted></_>
    <_>
      <rects>
        <_>
          2 14 4 2 -1.</_>
        <_>
          2 14 4 1 2.</_></rects>
      <tilted>1</tilted></_>
    <_>
      <rects>
        <_>
          2 15 18 3 -1.</_>
        <_>
          8 16 6 1 9.</_></rects>
      <tilted>0</tilted></_>
    <_>
      <rects>
        <_>
          3 0 10 4 -1.</_>
        <_>
          3 0 5 2 2.</_>
        <_>
          8 2 5 2 2.</_></rects>
      <tilted>0</tilted></_>
    <_>
      <rects>
        <_>
          3 1 5 6 -1.</_>
        <_>
          3 4 5 3 2.</_></rects>
      <tilted>0</tilted></_>
    <_>
      <rects>
        <_>
          3 3 1 3 -1.</_>
        <_>
          3 4 1 1 3.</_></rects>
      <tilted>0</tilted></_>
    <_>
      <rects>
        <_>
          3 7 7 3 -1.</_>
        <_>
          2 8 7 1 3.</_></rects>
      <tilted>1</tilted></_>
    <_>
      <rects>
        <_>
          3 11 8 5 -1.</_>
        <_>
          5 11 4 5 2.</_></rects>
      <tilted>0</tilted></_>
    <_>
      <rects>
        <_>
          3 12 2 3 -1.</_>
        <_>
          3 13 2 1 3.</_></rects>
      <tilted>0</tilted></_>
    <_>
      <rects>
        <_>
          3 15 14 5 -1.</_>
        <_>
          10 15 7 5 2.</_></rects>
      <tilted>0</tilted></_>
    <_>
      <rects>
        <_>
          4 0 1 3 -1.</_>
        <_>
          4 1 1 1 3.</_></rects>
      <tilted>0</tilted></_>
    <_>
      <rects>
        <_>
          4 1 1 3 -1.</_>
        <_>
          4 2 1 1 3.</_></rects>
      <tilted>0</tilted></_>
    <_>
      <rects>
        <_>
          4 1 4 2 -1.</_>
        <_>
          5 2 2 2 2.</_></rects>
      <tilted>1</tilted></_>
    <_>
      <rects>
        <_>
          4 1 6 2 -1.</_>
        <_>
          4 1 3 1 2.</_>
        <_>
          7 2 3 1 2.</_></rects>
      <tilted>0</tilted></_>
    <_>
      <rects>
        <_>
          4 4 2 4 -1.</_>
        <_>
          5 4 1 4 2.</_></rects>
      <tilted>0</tilted></_>
    <_>
      <rects>
        <_>
          4 15 4 2 -1.</_>
        <_>
          4 15 2 1 2.</_>
        <_>
          6 16 2 1 2.</_></rects>
      <tilted>0</tilted></_>
    <_>
      <rects>
        <_>
          5 1 2 16 -1.</_>
        <_>
          5 9 2 8 2.</_></rects>
      <tilted>0</tilted></_>
    <_>
      <rects>
        <_>
          5 1 14 6 -1.</_>
        <_>
          5 1 7 3 2.</_>
        <_>
          12 4 7 3 2.</_></rects>
      <tilted>0</tilted></_>
    <_>
      <rects>
        <_>
          5 2 14 10 -1.</_>
        <_>
          5 7 14 5 2.</_></rects>
      <tilted>0</tilted></_>
    <_>
      <rects>
        <_>
          5 3 14 2 -1.</_>
        <_>
          5 3 7 1 2.</_>
        <_>
          12 4 7 1 2.</_></rects>
      <tilted>0</tilted></_>
    <_>
      <rects>
        <_>
          5 5 1 4 -1.</_>
        <_>
          5 6 1 2 2.</_></rects>
      <tilted>0</tilted></_>
    <_>
      <rects>
        <_>
          5 6 5 4 -1.</_>
        <_>
          5 6 5 2 2.</_></rects>
      <tilted>1</tilted></_>
    <_>
      <rects>
        <_>
          5 6 14 9 -1.</_>
        <_>
          12 6 7 9 2.</_></rects>
      <tilted>0</tilted></_>
    <_>
      <rects>
        <_>
          5 9 12 1 -1.</_>
        <_>
          8 9 6 1 2.</_></rects>
      <tilted>0</tilted></_>
    <_>
      <rects>
        <_>
          5 11 1 4 -1.</_>
        <_>
          5 11 1 2 2.</_></rects>
      <tilted>1</tilted></_>
    <_>
      <rects>
        <_>
          5 19 2 1 -1.</_>
        <_>
          6 19 1 1 2.</_></rects>
      <tilted>0</tilted></_>
    <_>
      <rects>
        <_>
          6 3 2 4 -1.</_>
        <_>
          6 3 1 4 2.</_></rects>
      <tilted>1</tilted></_>
    <_>
      <rects>
        <_>
          6 4 4 2 -1.</_>
        <_>
          6 4 2 1 2.</_>
        <_>
          8 5 2 1 2.</_></rects>
      <tilted>0</tilted></_>
    <_>
      <rects>
        <_>
          6 8 2 2 -1.</_>
        <_>
          6 8 1 1 2.</_>
        <_>
          7 9 1 1 2.</_></rects>
      <tilted>0</tilted></_>
    <_>
      <rects>
        <_>
          6 8 3 2 -1.</_>
        <_>
          7 8 1 2 3.</_></rects>
      <tilted>0</tilted></_>
    <_>
      <rects>
        <_>
          6 9 8 1 -1.</_>
        <_>
          8 11 4 1 2.</_></rects>
      <tilted>1</tilted></_>
    <_>
      <rects>
        <_>
          6 10 4 3 -1.</_>
        <_>
          5 11 4 1 3.</_></rects>
      <tilted>1</tilted></_>
    <_>
      <rects>
        <_>
          6 15 2 1 -1.</_>
        <_>
          7 15 1 1 2.</_></rects>
      <tilted>0</tilted></_>
    <_>
      <rects>
        <_>
          6 16 13 2 -1.</_>
        <_>
          6 17 13 1 2.</_></rects>
      <tilted>0</tilted></_>
    <_>
      <rects>
        <_>
          7 0 6 2 -1.</_>
        <_>
          7 0 6 1 2.</_></rects>
      <tilted>1</tilted></_>
    <_>
      <rects>
        <_>
          7 2 12 3 -1.</_>
        <_>
          13 2 6 3 2.</_></rects>
      <tilted>0</tilted></_>
    <_>
      <rects>
        <_>
          7 5 4 2 -1.</_>
        <_>
          8 6 2 2 2.</_></rects>
      <tilted>1</tilted></_>
    <_>
      <rects>
        <_>
          7 12 13 8 -1.</_>
        <_>
          7 16 13 4 2.</_></rects>
      <tilted>0</tilted></_>
    <_>
      <rects>
        <_>
          8 0 8 6 -1.</_>
        <_>
          10 0 4 6 2.</_></rects>
      <tilted>0</tilted></_>
    <_>
      <rects>
        <_>
          8 0 6 1 -1.</_>
        <_>
          11 0 3 1 2.</_></rects>
      <tilted>0</tilted></_>
    <_>
      <rects>
        <_>
          8 1 3 6 -1.</_>
        <_>
          9 1 1 6 3.</_></rects>
      <tilted>0</tilted></_>
    <_>
      <rects>
        <_>
          8 3 4 2 -1.</_>
        <_>
          8 3 2 1 2.</_>
        <_>
          10 4 2 1 2.</_></rects>
      <tilted>0</tilted></_>
    <_>
      <rects>
        <_>
          8 3 4 4 -1.</_>
        <_>
          10 3 2 4 2.</_></rects>
      <tilted>0</tilted></_>
    <_>
      <rects>
        <_>
          8 4 2 7 -1.</_>
        <_>
          8 4 1 7 2.</_></rects>
      <tilted>1</tilted></_>
    <_>
      <rects>
        <_>
          8 4 12 1 -1.</_>
        <_>
          12 8 4 1 3.</_></rects>
      <tilted>1</tilted></_>
    <_>
      <rects>
        <_>
          8 8 2 12 -1.</_>
        <_>
          8 14 2 6 2.</_></rects>
      <tilted>0</tilted></_>
    <_>
      <rects>
        <_>
          8 9 2 2 -1.</_>
        <_>
          8 9 1 2 2.</_></rects>
      <tilted>1</tilted></_>
    <_>
      <rects>
        <_>
          8 9 6 3 -1.</_>
        <_>
          10 11 2 3 3.</_></rects>
      <tilted>1</tilted></_>
    <_>
      <rects>
        <_>
          8 12 9 2 -1.</_>
        <_>
          11 12 3 2 3.</_></rects>
      <tilted>0</tilted></_>
    <_>
      <rects>
        <_>
          9 0 4 3 -1.</_>
        <_>
          11 0 2 3 2.</_></rects>
      <tilted>0</tilted></_>
    <_>
      <rects>
        <_>
          9 1 10 6 -1.</_>
        <_>
          9 1 10 3 2.</_></rects>
      <tilted>1</tilted></_>
    <_>
      <rects>
        <_>
          9 2 7 4 -1.</_>
        <_>
          8 3 7 2 2.</_></rects>
      <tilted>1</tilted></_>
    <_>
      <rects>
        <_>
          9 4 8 7 -1.</_>
        <_>
          11 4 4 7 2.</_></rects>
      <tilted>0</tilted></_>
    <_>
      <rects>
        <_>
          9 9 2 3 -1.</_>
        <_>
          9 9 1 3 2.</_></rects>
      <tilted>1</tilted></_>
    <_>
      <rects>
        <_>
          9 11 5 3 -1.</_>
        <_>
          9 12 5 1 3.</_></rects>
      <tilted>0</tilted></_>
    <_>
      <rects>
        <_>
          9 17 8 1 -1.</_>
        <_>
          11 17 4 1 2.</_></rects>
      <tilted>0</tilted></_>
    <_>
      <rects>
        <_>
          10 2 3 5 -1.</_>
        <_>
          11 3 1 5 3.</_></rects>
      <tilted>1</tilted></_>
    <_>
      <rects>
        <_>
          10 2 2 8 -1.</_>
        <_>
          10 2 2 4 2.</_></rects>
      <tilted>1</tilted></_>
    <_>
      <rects>
        <_>
          10 2 6 10 -1.</_>
        <_>
          10 2 6 5 2.</_></rects>
      <tilted>1</tilted></_>
    <_>
      <rects>
        <_>
          10 9 9 4 -1.</_>
        <_>
          13 9 3 4 3.</_></rects>
      <tilted>0</tilted></_>
    <_>
      <rects>
        <_>
          10 14 9 6 -1.</_>
        <_>
          10 16 9 2 3.</_></rects>
      <tilted>0</tilted></_>
    <_>
      <rects>
        <_>
          11 1 1 12 -1.</_>
        <_>
          11 7 1 6 2.</_></rects>
      <tilted>0</tilted></_>
    <_>
      <rects>
        <_>
          11 2 1 6 -1.</_>
        <_>
          11 4 1 2 3.</_></rects>
      <tilted>0</tilted></_>
    <_>
      <rects>
        <_>
          11 3 4 16 -1.</_>
        <_>
          12 3 2 16 2.</_></rects>
      <tilted>0</tilted></_>
    <_>
      <rects>
        <_>
          11 3 9 1 -1.</_>
        <_>
          14 3 3 1 3.</_></rects>
      <tilted>0</tilted></_>
    <_>
      <rects>
        <_>
          11 3 6 2 -1.</_>
        <_>
          11 3 3 1 2.</_>
        <_>
          14 4 3 1 2.</_></rects>
      <tilted>0</tilted></_>
    <_>
      <rects>
        <_>
          11 13 4 3 -1.</_>
        <_>
          11 13 2 3 2.</_></rects>
      <tilted>1</tilted></_>
    <_>
      <rects>
        <_>
          11 15 6 4 -1.</_>
        <_>
          11 15 3 2 2.</_>
        <_>
          14 17 3 2 2.</_></rects>
      <tilted>0</tilted></_>
    <_>
      <rects>
        <_>
          11 17 6 2 -1.</_>
        <_>
          11 17 3 1 2.</_>
        <_>
          14 18 3 1 2.</_></rects>
      <tilted>0</tilted></_>
    <_>
      <rects>
        <_>
          12 3 3 6 -1.</_>
        <_>
          13 5 1 2 9.</_></rects>
      <tilted>0</tilted></_>
    <_>
      <rects>
        <_>
          12 5 3 12 -1.</_>
        <_>
          8 9 3 4 3.</_></rects>
      <tilted>1</tilted></_>
    <_>
      <rects>
        <_>
          12 6 4 12 -1.</_>
        <_>
          13 6 2 12 2.</_></rects>
      <tilted>0</tilted></_>
    <_>
      <rects>
        <_>
          12 7 8 1 -1.</_>
        <_>
          14 7 4 1 2.</_></rects>
      <tilted>0</tilted></_>
    <_>
      <rects>
        <_>
          12 17 1 3 -1.</_>
        <_>
          12 18 1 1 3.</_></rects>
      <tilted>0</tilted></_>
    <_>
      <rects>
        <_>
          13 3 4 16 -1.</_>
        <_>
          13 11 4 8 2.</_></rects>
      <tilted>0</tilted></_>
    <_>
      <rects>
        <_>
          13 6 6 8 -1.</_>
        <_>
          13 6 3 4 2.</_>
        <_>
          16 10 3 4 2.</_></rects>
      <tilted>0</tilted></_>
    <_>
      <rects>
        <_>
          13 7 6 10 -1.</_>
        <_>
          13 7 3 5 2.</_>
        <_>
          16 12 3 5 2.</_></rects>
      <tilted>0</tilted></_>
    <_>
      <rects>
        <_>
          13 10 3 8 -1.</_>
        <_>
          14 10 1 8 3.</_></rects>
      <tilted>0</tilted></_>
    <_>
      <rects>
        <_>
          14 1 6 2 -1.</_>
        <_>
          17 1 3 2 2.</_></rects>
      <tilted>0</tilted></_>
    <_>
      <rects>
        <_>
          14 1 4 2 -1.</_>
        <_>
          14 1 4 1 2.</_></rects>
      <tilted>1</tilted></_>
    <_>
      <rects>
        <_>
          14 2 2 2 -1.</_>
        <_>
          14 2 1 1 2.</_>
        <_>
          15 3 1 1 2.</_></rects>
      <tilted>0</tilted></_>
    <_>
      <rects>
        <_>
          14 3 4 11 -1.</_>
        <_>
          16 3 2 11 2.</_></rects>
      <tilted>0</tilted></_>
    <_>
      <rects>
        <_>
          14 14 3 1 -1.</_>
        <_>
          15 14 1 1 3.</_></rects>
      <tilted>0</tilted></_>
    <_>
      <rects>
        <_>
          15 0 4 5 -1.</_>
        <_>
          15 0 2 5 2.</_></rects>
      <tilted>1</tilted></_>
    <_>
      <rects>
        <_>
          15 11 1 6 -1.</_>
        <_>
          15 11 1 3 2.</_></rects>
      <tilted>1</tilted></_>
    <_>
      <rects>
        <_>
          15 11 3 8 -1.</_>
        <_>
          16 11 1 8 3.</_></rects>
      <tilted>0</tilted></_>
    <_>
      <rects>
        <_>
          15 15 2 3 -1.</_>
        <_>
          15 16 2 1 3.</_></rects>
      <tilted>0</tilted></_>
    <_>
      <rects>
        <_>
          16 2 4 14 -1.</_>
        <_>
          16 2 4 7 2.</_></rects>
      <tilted>1</tilted></_>
    <_>
      <rects>
        <_>
          16 3 3 12 -1.</_>
        <_>
          13 6 3 6 2.</_></rects>
      <tilted>1</tilted></_>
    <_>
      <rects>
        <_>
          16 6 2 11 -1.</_>
        <_>
          17 6 1 11 2.</_></rects>
      <tilted>0</tilted></_>
    <_>
      <rects>
        <_>
          17 0 1 2 -1.</_>
        <_>
          17 0 1 1 2.</_></rects>
      <tilted>1</tilted></_>
    <_>
      <rects>
        <_>
          17 0 1 12 -1.</_>
        <_>
          14 3 1 6 2.</_></rects>
      <tilted>1</tilted></_>
    <_>
      <rects>
        <_>
          17 5 2 3 -1.</_>
        <_>
          18 5 1 3 2.</_></rects>
      <tilted>0</tilted></_>
    <_>
      <rects>
        <_>
          17 9 2 2 -1.</_>
        <_>
          17 9 1 2 2.</_></rects>
      <tilted>1</tilted></_>
    <_>
      <rects>
        <_>
          18 3 2 10 -1.</_>
        <_>
          18 3 1 5 2.</_>
        <_>
          19 8 1 5 2.</_></rects>
      <tilted>0</tilted></_>
    <_>
      <rects>
        <_>
          18 7 2 12 -1.</_>
        <_>
          18 7 1 6 2.</_>
        <_>
          19 13 1 6 2.</_></rects>
      <tilted>0</tilted></_>
    <_>
      <rects>
        <_>
          18 15 2 1 -1.</_>
        <_>
          18 15 1 1 2.</_></rects>
      <tilted>1</tilted></_>
    <_>
      <rects>
        <_>
          19 0 1 4 -1.</_>
        <_>
          19 0 1 2 2.</_></rects>
      <tilted>1</tilted></_></features></cascade>
</opencv_storage>
